Language model created by QuickLM on Tue Jan 24 09:59:19 EST 2017
Copyright (c) 1996-2010 Carnegie Mellon University and Alexander I. Rudnicky

The model is in standard ARPA format, designed by Doug Paul while he was at MITRE.

The code that was used to produce this language model is available in Open Source.
Please visit http://www.speech.cs.cmu.edu/tools/ for more information

The (fixed) discount mass is 0.5. The backoffs are computed using the ratio method.
This model based on a corpus of 58 sentences and 29 words

\data\
ngram 1=29
ngram 2=55
ngram 3=68

\1-grams:
-1.0767 </s> -0.3010
-1.0767 <s> -0.2630
-1.7609 BATHROOM -0.2332
-2.8401 CLOSE -0.2561
-2.8401 COMPUTER -0.2630
-2.8401 DECEMBER -0.2630
-2.5391 DOOR -0.2630
-1.5848 IN -0.2561
-2.8401 JARVIS -0.2630
-1.7609 KITCHEN -0.2332
-1.2169 LIGHT -0.2505
-1.7609 LIVING-ROOM -0.2332
-2.8401 LOCK -0.2561
-2.8401 MICROPHONE -0.2630
-2.8401 OBAMA -0.2630
-2.8401 OPEN -0.2561
-2.8401 POLICE -0.2630
-2.2380 RADIATOR -0.2630
-2.8401 ROBOT -0.2630
-2.8401 SNOWMAN -0.2630
-1.9950 SWITCH-OFF -0.2561
-1.9950 SWITCH-ON -0.2561
-1.0076 THE -0.2434
-1.9370 TURN-DOWN -0.2561
-1.9370 TURN-OFF -0.2561
-1.9370 TURN-ON -0.2561
-1.9370 TURN-UP -0.2561
-2.8401 UNLOCK -0.2561
-2.5391 WINDOW -0.2630

\2-grams:
-2.0645 <s> CLOSE 0.0000
-2.0645 <s> COMPUTER 0.0000
-2.0645 <s> DECEMBER 0.0000
-2.0645 <s> JARVIS 0.0000
-2.0645 <s> LOCK 0.0000
-2.0645 <s> MICROPHONE 0.0000
-2.0645 <s> OBAMA 0.0000
-2.0645 <s> OPEN 0.0000
-2.0645 <s> POLICE 0.0000
-2.0645 <s> ROBOT 0.0000
-2.0645 <s> SNOWMAN 0.0000
-1.2194 <s> SWITCH-OFF 0.0000
-1.2194 <s> SWITCH-ON 0.0000
-1.1614 <s> TURN-DOWN 0.0000
-1.1614 <s> TURN-OFF 0.0000
-1.1614 <s> TURN-ON 0.0000
-1.1614 <s> TURN-UP 0.0000
-2.0645 <s> UNLOCK 0.0000
-0.6021 BATHROOM </s> -0.3010
-0.6021 BATHROOM LIGHT -0.1549
-0.3010 CLOSE THE -0.2946
-0.3010 COMPUTER </s> -0.3010
-0.3010 DECEMBER </s> -0.3010
-0.3010 DOOR </s> -0.3010
-0.3010 IN THE -0.1675
-0.3010 JARVIS </s> -0.3010
-0.6021 KITCHEN </s> -0.3010
-0.6021 KITCHEN LIGHT -0.1549
-0.5441 LIGHT </s> -0.3010
-0.6690 LIGHT IN 0.0000
-0.6021 LIVING-ROOM </s> -0.3010
-0.6021 LIVING-ROOM LIGHT -0.1549
-0.3010 LOCK THE -0.2946
-0.3010 MICROPHONE </s> -0.3010
-0.3010 OBAMA </s> -0.3010
-0.3010 OPEN THE -0.2946
-0.3010 POLICE </s> -0.3010
-0.3010 RADIATOR </s> -0.3010
-0.3010 ROBOT </s> -0.3010
-0.3010 SNOWMAN </s> -0.3010
-0.3010 SWITCH-OFF THE -0.0483
-0.3010 SWITCH-ON THE -0.0483
-1.0544 THE BATHROOM 0.0000
-1.8325 THE DOOR 0.0000
-1.0544 THE KITCHEN 0.0000
-0.7533 THE LIGHT 0.0000
-1.0544 THE LIVING-ROOM 0.0000
-1.5315 THE RADIATOR 0.0000
-1.8325 THE WINDOW 0.0000
-0.3010 TURN-DOWN THE -0.0248
-0.3010 TURN-OFF THE -0.0248
-0.3010 TURN-ON THE -0.0248
-0.3010 TURN-UP THE -0.0248
-0.3010 UNLOCK THE -0.2946
-0.3010 WINDOW </s> -0.3010

\3-grams:
-0.3010 <s> CLOSE THE
-0.3010 <s> COMPUTER </s>
-0.3010 <s> DECEMBER </s>
-0.3010 <s> JARVIS </s>
-0.3010 <s> LOCK THE
-0.3010 <s> MICROPHONE </s>
-0.3010 <s> OBAMA </s>
-0.3010 <s> OPEN THE
-0.3010 <s> POLICE </s>
-0.3010 <s> ROBOT </s>
-0.3010 <s> SNOWMAN </s>
-0.3010 <s> SWITCH-OFF THE
-0.3010 <s> SWITCH-ON THE
-0.3010 <s> TURN-DOWN THE
-0.3010 <s> TURN-OFF THE
-0.3010 <s> TURN-ON THE
-0.3010 <s> TURN-UP THE
-0.3010 <s> UNLOCK THE
-0.3010 BATHROOM LIGHT </s>
-0.3010 CLOSE THE WINDOW
-0.7782 IN THE BATHROOM
-0.7782 IN THE KITCHEN
-0.7782 IN THE LIVING-ROOM
-0.3010 KITCHEN LIGHT </s>
-0.3010 LIGHT IN THE
-0.3010 LIVING-ROOM LIGHT </s>
-0.3010 LOCK THE DOOR
-0.3010 OPEN THE WINDOW
-1.1461 SWITCH-OFF THE BATHROOM
-1.1461 SWITCH-OFF THE KITCHEN
-0.5441 SWITCH-OFF THE LIGHT
-1.1461 SWITCH-OFF THE LIVING-ROOM
-1.1461 SWITCH-ON THE BATHROOM
-1.1461 SWITCH-ON THE KITCHEN
-0.5441 SWITCH-ON THE LIGHT
-1.1461 SWITCH-ON THE LIVING-ROOM
-0.6021 THE BATHROOM </s>
-0.6021 THE BATHROOM LIGHT
-0.3010 THE DOOR </s>
-0.6021 THE KITCHEN </s>
-0.6021 THE KITCHEN LIGHT
-0.9031 THE LIGHT </s>
-0.4260 THE LIGHT IN
-0.6021 THE LIVING-ROOM </s>
-0.6021 THE LIVING-ROOM LIGHT
-0.3010 THE RADIATOR </s>
-0.3010 THE WINDOW </s>
-1.2041 TURN-DOWN THE BATHROOM
-1.2041 TURN-DOWN THE KITCHEN
-0.6021 TURN-DOWN THE LIGHT
-1.2041 TURN-DOWN THE LIVING-ROOM
-1.2041 TURN-DOWN THE RADIATOR
-1.2041 TURN-OFF THE BATHROOM
-1.2041 TURN-OFF THE KITCHEN
-0.6021 TURN-OFF THE LIGHT
-1.2041 TURN-OFF THE LIVING-ROOM
-1.2041 TURN-OFF THE RADIATOR
-1.2041 TURN-ON THE BATHROOM
-1.2041 TURN-ON THE KITCHEN
-0.6021 TURN-ON THE LIGHT
-1.2041 TURN-ON THE LIVING-ROOM
-1.2041 TURN-ON THE RADIATOR
-1.2041 TURN-UP THE BATHROOM
-1.2041 TURN-UP THE KITCHEN
-0.6021 TURN-UP THE LIGHT
-1.2041 TURN-UP THE LIVING-ROOM
-1.2041 TURN-UP THE RADIATOR
-0.3010 UNLOCK THE DOOR

\end\
