Language model created by QuickLM on Sun Jan  8 15:01:17 EST 2017
Copyright (c) 1996-2010 Carnegie Mellon University and Alexander I. Rudnicky

The model is in standard ARPA format, designed by Doug Paul while he was at MITRE.

The code that was used to produce this language model is available in Open Source.
Please visit http://www.speech.cs.cmu.edu/tools/ for more information

The (fixed) discount mass is 0.5. The backoffs are computed using the ratio method.
This model based on a corpus of 20 sentences and 20 words

\data\
ngram 1=20
ngram 2=34
ngram 3=41

\1-grams:
-1.1335 </s> -0.3010
-1.1335 <s> -0.2679
-2.4346 CLOSE -0.2644
-2.1335 DOOR -0.2679
-1.9574 DOWN -0.2644
-2.1335 HEATER -0.2679
-2.1335 IN -0.2644
-1.2884 LIGHT -0.2644
-1.5315 LIVING -0.2881
-2.4346 LOCK -0.2644
-1.7356 OFF -0.2644
-1.7356 ON -0.2644
-2.4346 OPEN -0.2644
-1.5315 ROOM -0.2430
-1.8325 SWITCH -0.2848
-1.0921 THE -0.2539
-1.3554 TURN -0.2747
-2.4346 UNLOCK -0.2644
-1.9574 UP -0.2644
-2.1335 WINDOW -0.2679

\2-grams:
-1.6021 <s> CLOSE 0.0000
-1.6021 <s> LOCK 0.0000
-1.6021 <s> OPEN 0.0000
-1.0000 <s> SWITCH 0.0000
-0.5229 <s> TURN 0.0000
-1.6021 <s> UNLOCK 0.0000
-0.3010 CLOSE THE -0.2808
-0.3010 DOOR </s> -0.3010
-0.3010 DOWN THE -0.0726
-0.3010 HEATER </s> -0.3010
-0.3010 IN THE -0.2139
-0.3680 LIGHT </s> -0.3010
-1.1461 LIGHT IN 0.0000
-0.3010 LIVING ROOM 0.0000
-0.3010 LOCK THE -0.2808
-0.3010 OFF THE -0.1047
-0.3010 ON THE -0.1047
-0.3010 OPEN THE -0.2808
-0.9031 ROOM </s> -0.3010
-0.4260 ROOM LIGHT -0.0580
-0.6021 SWITCH OFF 0.0000
-0.6021 SWITCH ON 0.0000
-1.3424 THE DOOR 0.0000
-1.3424 THE HEATER 0.0000
-0.7404 THE LIGHT 0.0000
-0.7404 THE LIVING 0.0000
-1.3424 THE WINDOW 0.0000
-0.9031 TURN DOWN 0.0000
-0.9031 TURN OFF 0.0000
-0.9031 TURN ON 0.0000
-0.9031 TURN UP 0.0000
-0.3010 UNLOCK THE -0.2808
-0.3010 UP THE -0.0726
-0.3010 WINDOW </s> -0.3010

\3-grams:
-0.3010 <s> CLOSE THE
-0.3010 <s> LOCK THE
-0.3010 <s> OPEN THE
-0.6021 <s> SWITCH OFF
-0.6021 <s> SWITCH ON
-0.9031 <s> TURN DOWN
-0.9031 <s> TURN OFF
-0.9031 <s> TURN ON
-0.9031 <s> TURN UP
-0.3010 <s> UNLOCK THE
-0.3010 CLOSE THE WINDOW
-0.7782 DOWN THE HEATER
-0.7782 DOWN THE LIGHT
-0.7782 DOWN THE LIVING
-0.3010 IN THE LIVING
-0.3010 LIGHT IN THE
-0.9031 LIVING ROOM </s>
-0.4260 LIVING ROOM LIGHT
-0.3010 LOCK THE DOOR
-0.5229 OFF THE LIGHT
-0.6990 OFF THE LIVING
-0.5229 ON THE LIGHT
-0.6990 ON THE LIVING
-0.3010 OPEN THE WINDOW
-0.3010 ROOM LIGHT </s>
-0.3010 SWITCH OFF THE
-0.3010 SWITCH ON THE
-0.3010 THE DOOR </s>
-0.3010 THE HEATER </s>
-0.4260 THE LIGHT </s>
-0.9031 THE LIGHT IN
-0.3010 THE LIVING ROOM
-0.3010 THE WINDOW </s>
-0.3010 TURN DOWN THE
-0.3010 TURN OFF THE
-0.3010 TURN ON THE
-0.3010 TURN UP THE
-0.3010 UNLOCK THE DOOR
-0.7782 UP THE HEATER
-0.7782 UP THE LIGHT
-0.7782 UP THE LIVING

\end\
